digraph Tree {
node [shape=box] ;
0 [label="X[10] <= 22.5\ngini = 0.5\nsamples = 150\nvalue = [77, 73]"] ;
1 [label="X[10] <= 2.0\ngini = 0.468\nsamples = 123\nvalue = [77, 46]"] ;
0 -> 1 [labeldistance=2.5, labelangle=45, headlabel="True"] ;
2 [label="X[11] <= 0.144\ngini = 0.074\nsamples = 26\nvalue = [1, 25]"] ;
1 -> 2 ;
3 [label="gini = 0.0\nsamples = 1\nvalue = [1, 0]"] ;
2 -> 3 ;
4 [label="gini = 0.0\nsamples = 25\nvalue = [0, 25]"] ;
2 -> 4 ;
5 [label="X[10] <= 15.0\ngini = 0.339\nsamples = 97\nvalue = [76, 21]"] ;
1 -> 5 ;
6 [label="X[12] <= 0.729\ngini = 0.247\nsamples = 83\nvalue = [71, 12]"] ;
5 -> 6 ;
7 [label="X[11] <= 0.331\ngini = 0.191\nsamples = 75\nvalue = [67, 8]"] ;
6 -> 7 ;
8 [label="X[14] <= 0.267\ngini = 0.494\nsamples = 9\nvalue = [5, 4]"] ;
7 -> 8 ;
9 [label="gini = 0.0\nsamples = 3\nvalue = [0, 3]"] ;
8 -> 9 ;
10 [label="X[10] <= 5.0\ngini = 0.278\nsamples = 6\nvalue = [5, 1]"] ;
8 -> 10 ;
11 [label="gini = 0.0\nsamples = 1\nvalue = [0, 1]"] ;
10 -> 11 ;
12 [label="gini = 0.0\nsamples = 5\nvalue = [5, 0]"] ;
10 -> 12 ;
13 [label="X[3] <= 0.002\ngini = 0.114\nsamples = 66\nvalue = [62, 4]"] ;
7 -> 13 ;
14 [label="gini = 0.0\nsamples = 1\nvalue = [0, 1]"] ;
13 -> 14 ;
15 [label="X[14] <= 0.1\ngini = 0.088\nsamples = 65\nvalue = [62, 3]"] ;
13 -> 15 ;
16 [label="X[8] <= 0.17\ngini = 0.444\nsamples = 3\nvalue = [2, 1]"] ;
15 -> 16 ;
17 [label="gini = 0.0\nsamples = 1\nvalue = [0, 1]"] ;
16 -> 17 ;
18 [label="gini = 0.0\nsamples = 2\nvalue = [2, 0]"] ;
16 -> 18 ;
19 [label="X[2] <= 0.558\ngini = 0.062\nsamples = 62\nvalue = [60, 2]"] ;
15 -> 19 ;
20 [label="X[10] <= 3.5\ngini = 0.033\nsamples = 59\nvalue = [58, 1]"] ;
19 -> 20 ;
21 [label="X[9] <= 0.053\ngini = 0.165\nsamples = 11\nvalue = [10, 1]"] ;
20 -> 21 ;
22 [label="X[8] <= 0.029\ngini = 0.5\nsamples = 2\nvalue = [1, 1]"] ;
21 -> 22 ;
23 [label="gini = 0.0\nsamples = 1\nvalue = [1, 0]"] ;
22 -> 23 ;
24 [label="gini = 0.0\nsamples = 1\nvalue = [0, 1]"] ;
22 -> 24 ;
25 [label="gini = 0.0\nsamples = 9\nvalue = [9, 0]"] ;
21 -> 25 ;
26 [label="gini = 0.0\nsamples = 48\nvalue = [48, 0]"] ;
20 -> 26 ;
27 [label="X[8] <= 0.041\ngini = 0.444\nsamples = 3\nvalue = [2, 1]"] ;
19 -> 27 ;
28 [label="gini = 0.0\nsamples = 2\nvalue = [2, 0]"] ;
27 -> 28 ;
29 [label="gini = 0.0\nsamples = 1\nvalue = [0, 1]"] ;
27 -> 29 ;
30 [label="X[10] <= 9.5\ngini = 0.5\nsamples = 8\nvalue = [4, 4]"] ;
6 -> 30 ;
31 [label="X[8] <= 0.003\ngini = 0.32\nsamples = 5\nvalue = [1, 4]"] ;
30 -> 31 ;
32 [label="gini = 0.0\nsamples = 1\nvalue = [1, 0]"] ;
31 -> 32 ;
33 [label="gini = 0.0\nsamples = 4\nvalue = [0, 4]"] ;
31 -> 33 ;
34 [label="gini = 0.0\nsamples = 3\nvalue = [3, 0]"] ;
30 -> 34 ;
35 [label="X[10] <= 21.0\ngini = 0.459\nsamples = 14\nvalue = [5, 9]"] ;
5 -> 35 ;
36 [label="gini = 0.0\nsamples = 9\nvalue = [0, 9]"] ;
35 -> 36 ;
37 [label="gini = 0.0\nsamples = 5\nvalue = [5, 0]"] ;
35 -> 37 ;
38 [label="gini = 0.0\nsamples = 27\nvalue = [0, 27]"] ;
0 -> 38 [labeldistance=2.5, labelangle=-45, headlabel="False"] ;
}
